{
  "model": {
    "n_features": 37,
    "n_factors": 5,
    "W1": [
      [
        -0.007398519827947875,
        -0.2939424713003791,
        0.10665748528743603,
        0.1494441615369525,
        -0.3497212413346009,
        -0.15394528502044105,
        0.013662802198943764,
        -0.1503066840691071,
        0.047548828872155856,
        -0.05282764415451247,
        0.05163908659933441,
        0.2870356713533279,
        0.008334385969013536,
        0.08970399183103861,
        0.06632674197263283,
        -0.09955194197661779
      ],
      [
        -0.0009951493951411202,
        -0.28583232075922943,
        0.11945739583751755,
        0.05039509879920588,
        -0.17310395882374358,
        -0.09182028877460333,
        0.1231328957496183,
        -0.134135373041629,
        0.006396162406274009,
        -0.002736606445977411,
        0.01693020766838644,
        0.24580088424684082,
        0.04300457737249076,
        0.02006197143502361,
        0.2337405678344745,
        -0.05426419732675556
      ],
      [
        -0.08909450071054478,
        -0.27132133350111726,
        0.09321030796433989,
        0.1682849191699203,
        -0.16601246823470506,
        -0.10774298203046198,
        -0.08156935968690868,
        -0.053623146052278726,
        0.12355436174292905,
        0.08679217543336504,
        -0.10285168161581791,
        0.23247261011710502,
        0.013399897126964754,
        -0.001151269192863401,
        0.10671868554224731,
        0.008736859189174226
      ],
      [
        0.03657167840048377,
        -0.16113005924143947,
        0.0682722657371947,
        0.12145728601045762,
        -0.28548287517756404,
        -0.05077485943815106,
        -0.05731107615360046,
        -0.16741585036764478,
        0.03050355752012262,
        0.1794755231930044,
        -0.12158363606425333,
        0.30494464648771075,
        -0.16512497100389623,
        -0.0711183239724609,
        0.04358575307545724,
        0.04478255392392841
      ],
      [
        0.1785615351087451,
        0.13654305625189556,
        0.11586888104863621,
        -0.10448839238287815,
        0.03168769324194527,
        -0.041273985801554745,
        -0.15948902254588243,
        -0.0644488191404038,
        -0.09738990548016847,
        -0.0797959063574047,
        0.06561610407689383,
        0.009342711867002538,
        0.06775706419686837,
        -0.07124247217998741,
        -0.0158387282648644,
        -0.03435865569553751
      ],
      [
        0.1064333863004536,
        -0.04885725374618893,
        -0.09368009656718444,
        0.048386542366610094,
        -0.14306972950827793,
        0.08290869519201502,
        -0.07173097727425297,
        0.0953580317234716,
        0.13890628555787826,
        0.11745059832574345,
        0.007917812971298854,
        -0.09696892301172695,
        -0.10474603091438882,
        -0.08483261376620216,
        -0.18700090289540006,
        -0.1593400887940238
      ],
      [
        -0.14948040595839965,
        -0.1321758465698307,
        0.059288385208240285,
        0.005831899140680582,
        -0.04880069005016148,
        0.1084425147925951,
        -0.047221178016691095,
        0.10493585574945283,
        0.008825201057909323,
        -1.8517138359394192e-05,
        -0.10610292346113573,
        -0.017611283724434715,
        0.06153994189003304,
        -0.20601432250143611,
        0.13226075093515635,
        0.06921587569123963
      ],
      [
        -0.07943704804742766,
        -0.20331226856701615,
        -0.06400496002296202,
        0.01249235880682958,
        0.05075619987761082,
        0.08367124745448125,
        0.23440804535172075,
        -0.11131164931597039,
        -0.10595740528574164,
        0.04871993665647089,
        0.0019176733093301183,
        0.050444562758062514,
        0.13229408819888688,
        -0.019051280998005692,
        0.18992451231819543,
        -0.15282830212054546
      ],
      [
        -0.08939718213436987,
        -0.125108757950235,
        -0.0606718541556772,
        -0.020944938490048616,
        0.052530660035217905,
        -0.03013588198125211,
        -0.1586754103608142,
        -0.12347098700662124,
        0.07310063698533749,
        0.17772470537294283,
        0.17098325451134685,
        0.4116872950147807,
        0.06072726847941415,
        -0.13223609218538765,
        -0.22174842962519356,
        -0.0033829690452392993
      ],
      [
        -0.13442987023776967,
        0.010463140512826891,
        -0.09918544295481575,
        -0.09939471013094982,
        0.16007296662460999,
        0.0007301081048055507,
        0.012168751598432807,
        -0.12010048221099141,
        -0.23748527183170715,
        -0.05347945886629014,
        0.0515315730410067,
        0.22389099434600082,
        -0.03049084077894197,
        0.13935069775502892,
        -0.12165994925809398,
        -0.1295095440330297
      ],
      [
        -0.11372212094619664,
        -0.10497377026325783,
        0.2750888414912124,
        -0.13388398933981357,
        0.07286448572741198,
        -0.09820633008007741,
        0.03004805368535299,
        0.09689168192773505,
        0.0363715300793655,
        -0.004925541550629553,
        -0.07657948751301663,
        0.25476671052950756,
        -0.06824736433064359,
        -0.1558428565589261,
        -0.10328580359429711,
        0.11172985935447567
      ],
      [
        0.08939868290650933,
        -0.027824827698876703,
        -0.0630380674547042,
        -0.008463133012336591,
        0.11961573952445995,
        0.014024637865010858,
        -0.07691941033280217,
        0.043472414183359925,
        -0.021522327248005402,
        0.15159614394704235,
        0.007222725752112983,
        -0.16791482255451023,
        -0.15934912051955175,
        0.39000810790580465,
        0.3892459380331367,
        0.008506644848175354
      ],
      [
        -0.08523504869062905,
        0.13123484697086513,
        -0.13136612516459018,
        -0.14595500428070973,
        0.09512632915624343,
        -0.08473787357008782,
        0.03431627653838233,
        -0.07933279539339438,
        -0.05110815534666326,
        0.13670684584710815,
        -0.00491293217149776,
        0.08696640062743491,
        -0.24578138633762261,
        0.125063019123483,
        -0.10994987182896622,
        -0.13550962449790885
      ],
      [
        -0.09722835500484683,
        0.043915438018851866,
        0.08016917203559913,
        -0.16386097590918927,
        -0.004819408654296649,
        -0.04195243695631506,
        -0.044362090346744584,
        0.22109973703709002,
        0.0874861063713043,
        0.08730154254672623,
        0.017538770432813378,
        -0.10714383911329464,
        0.04133994896770553,
        -0.009032601055079041,
        0.009719302935184923,
        -0.11748726591239342
      ],
      [
        0.14827600537369753,
        -0.0033046445659843057,
        0.3022559985158235,
        0.3642956775787422,
        -0.17003430036133518,
        0.015835608039592355,
        -0.15178778588985156,
        -0.024114374119579,
        0.15688347481641352,
        0.13710317981948394,
        -0.11850725752630599,
        -0.13821835622586362,
        -0.1339575783881507,
        -0.21562010506805385,
        -0.13137422411173658,
        -0.061654888758392354
      ],
      [
        -0.08768607781675883,
        -0.0094262554252557,
        -0.17577283913566313,
        -0.14670452453909907,
        0.21292471120282982,
        -0.12874225812740311,
        -0.10967855784546397,
        0.18369135283213142,
        0.2905067169240407,
        -0.11715666288253418,
        -0.03682489567880306,
        0.03415555509405096,
        0.17286976444055924,
        -0.09868570784282375,
        -0.024527784594210976,
        0.0777337576061744
      ],
      [
        -0.07651409646130843,
        -0.11181904979560357,
        -0.04390780487159714,
        -0.262962212982297,
        -0.012648015089450288,
        -0.0696544033766634,
        0.02948197435265846,
        -0.1453554862175331,
        -0.06202554541388194,
        0.10546202925257321,
        0.025594690355820484,
        0.1704524158421779,
        -0.06927610722175209,
        0.22060644269527566,
        -0.026444348891995602,
        0.04544846866587517
      ],
      [
        -0.04086358888988013,
        0.31246062946710956,
        0.13165934745954755,
        -0.02877668639270567,
        0.04218342577951228,
        -0.12012958308817033,
        0.12522126415950918,
        0.03234984566449204,
        -0.0036965946324393215,
        -0.1780395752401627,
        0.12810726389131893,
        -0.01980231626490194,
        -0.16347090910245074,
        -0.046438792612024195,
        0.0022777244511272728,
        0.003712900996296777
      ],
      [
        -0.008491435246943221,
        0.013754515610294582,
        0.12766780503023983,
        -0.03521541554495585,
        0.10701983523108226,
        -0.26457945636450453,
        -0.03527980736151691,
        -0.0042618367486223895,
        0.0010151620650687787,
        -0.03917091338468585,
        -0.18677289621793602,
        -0.0047500295748133525,
        0.2304860629936181,
        -0.186668420673815,
        0.07415496023772218,
        -0.041900981001346135
      ],
      [
        0.06810553571654446,
        -0.086272300903852,
        -0.07244307605533244,
        0.21016208092466088,
        0.08395683196942545,
        0.20014633015904515,
        0.15548446168284175,
        0.11494457279804299,
        0.25465255864813324,
        0.04813157927987975,
        0.05276322892030536,
        -0.028138601121981424,
        0.005453062235276496,
        -0.23832267756091013,
        0.017068776638154023,
        -0.11888848074560933
      ],
      [
        0.012430996693464183,
        -0.030519484890107286,
        0.09636973772118287,
        0.029983017113445427,
        0.1842675898068914,
        0.048138545464826835,
        -0.17395422039625347,
        -0.038351658493289524,
        -0.15849443070803887,
        -0.05468756919948512,
        0.20774718755133942,
        0.12166627790692532,
        -0.09370781288409029,
        -0.011984341327475544,
        -0.033885276852777486,
        -0.13280175307372932
      ],
      [
        -0.13562447047419218,
        -0.012623041901096144,
        0.06435696876695361,
        0.023830400249853122,
        -0.2401133855060325,
        0.022523060631651205,
        -0.028623329926170695,
        -0.025767428285359616,
        0.09722299707095396,
        -0.20830328293303116,
        -0.0702110604891882,
        0.013622712896875236,
        -0.18069264054037948,
        0.37251021948803054,
        0.2537150272248729,
        0.11111696476077582
      ],
      [
        0.007142549117123824,
        0.10823672343188506,
        0.3277912013607265,
        -0.05608589301016211,
        -0.013480231179512305,
        -0.006187526715275023,
        -0.10308472130486754,
        -0.04640920922750474,
        -0.03194834598178092,
        -0.05765726591158135,
        0.0966820968188685,
        -0.059218088640098664,
        0.020936383952264007,
        0.05978743860892472,
        -0.13576218665670123,
        -0.0952966972729668
      ],
      [
        0.020230619183119358,
        0.08443851904853202,
        0.0011426055560659332,
        0.13289605904369892,
        0.08567939825665269,
        0.08418200668900619,
        0.05541165013240933,
        0.2327653100346085,
        -0.02051616888660442,
        -0.2003522292066514,
        0.16042543615171412,
        -0.045769943095682566,
        0.010788044434303305,
        0.1309550684860527,
        -0.16022595410589255,
        -0.12516472141061394
      ],
      [
        -0.055267652058808875,
        -0.07702143394714275,
        0.03042403519181096,
        0.23035474158131175,
        -0.03743828515186755,
        -0.10762005460398039,
        -0.28156572951629866,
        0.14508640105267132,
        0.1371890857026668,
        0.09078548156423588,
        0.04315717340707604,
        0.012836943220416532,
        0.13783775875423757,
        -0.11551309983820811,
        0.06912548964110336,
        -0.030704056275654725
      ],
      [
        -0.15566702605315613,
        0.0027461085203953984,
        -0.024647913313861423,
        -0.17075303037554154,
        0.13596744190544466,
        -0.04154663454832615,
        0.046915142341900494,
        -0.03679712817963496,
        -0.37102611274366243,
        -0.12149495742410361,
        -0.1199132625182801,
        -0.25771769134361694,
        -0.14660748683023583,
        0.25866972572730934,
        -0.010951034375145021,
        -0.012113870523553151
      ],
      [
        0.10892174967107926,
        0.13276861322676917,
        -0.0069137934726139555,
        0.13535858895693972,
        0.009212665843410921,
        -0.08373982238274622,
        -0.059440035219873524,
        -0.14805365125650163,
        -0.08881338537336525,
        -0.03580166880744292,
        0.08035850193786016,
        0.1720769831165984,
        -0.138218151537704,
        0.03928274682599189,
        -0.10405439391575344,
        0.0474697088463202
      ],
      [
        -0.01310866506877266,
        -0.18309058258475305,
        0.09282969915684844,
        -0.060500071280873105,
        -0.053390023837355464,
        -0.106975241128969,
        -0.06542832766875555,
        0.04278904406949172,
        -0.018924434093640554,
        0.032866200228248106,
        0.03619218539288437,
        0.1320661655528167,
        -0.03427861508643793,
        -0.1476857816845732,
        0.1067222416571983,
        -0.03314881720972547
      ],
      [
        0.1114592444577377,
        0.03833771131824704,
        -0.013113753020334493,
        0.03487758940462951,
        0.19510125601262995,
        0.20769805290537532,
        0.006938113513277871,
        0.01601905933170753,
        0.10762401574663856,
        -0.08456610327673472,
        0.03330703726182551,
        -0.0025862847953856405,
        0.03139082114575536,
        -0.08333688059494058,
        -0.1589567493308969,
        -0.2072983435991292
      ],
      [
        -0.11173841129896078,
        -0.0458675284939333,
        -0.029319158664876183,
        0.1937231162429517,
        0.11059933699072982,
        -0.09620911163416274,
        0.034770845245095695,
        -0.04070782363503251,
        -0.028436383804009514,
        0.018532564941538203,
        0.06191711169753933,
        -0.033925848388401535,
        0.10638515327343585,
        -0.11419382261424041,
        0.0006339062362268442,
        0.2597673726595832
      ],
      [
        0.02230797426252751,
        0.14332145066061727,
        0.009152017817320819,
        0.05807770953297967,
        -0.005678319439269153,
        -0.017040758116420442,
        -0.07794823967254197,
        0.04303013589575533,
        -0.0851537189185768,
        0.06655852363134292,
        0.10852870044459101,
        0.03665314072372299,
        -0.028624873355569187,
        0.04539655793086961,
        -0.03086730555464126,
        0.09355471254651493
      ],
      [
        -0.18314060842151236,
        -0.033560736811864625,
        -0.19908119951239978,
        -0.1495060830227205,
        0.13638622298139094,
        0.0895184981971686,
        -0.07194802332847904,
        -0.1502503456040897,
        -0.2964528837841651,
        -0.05434955079326346,
        0.24204150122474025,
        0.04348842714636474,
        -0.05595722860494895,
        0.04650802095003063,
        -0.1560958352994443,
        -0.029732336269763543
      ],
      [
        0.009947747301573849,
        -0.00861006518210485,
        0.07908061216900807,
        0.03446452262360524,
        0.0668326018107997,
        -0.06883722822307595,
        0.08978154084105482,
        0.16289369476239915,
        -0.09701495196514126,
        -0.08876956557145599,
        0.1335784336320233,
        -0.01913439866950603,
        0.1403821392066557,
        -0.04425357118921839,
        0.14550455762707112,
        0.013148581680545219
      ],
      [
        0.09486461144324042,
        0.14191252579729868,
        -0.009179279020922358,
        0.051957483284930946,
        -0.014871780432049325,
        0.057344867616047276,
        -0.21426261298130697,
        0.14483274225972173,
        0.10535648052003538,
        0.17633362976493688,
        -0.2994689745184392,
        -0.0566084588534689,
        -0.2204404370339767,
        -0.18075903129333992,
        0.03668645475056238,
        0.026184178817505323
      ],
      [
        -0.025337756894801496,
        -0.01591848713800608,
        0.020338824061994346,
        -0.10085360419431078,
        0.07068496408990509,
        0.0662665970385484,
        0.038503793765610105,
        0.05565334427512632,
        0.02964180008086595,
        0.20350733027310675,
        -0.00870941710525099,
        -0.030708321833457675,
        -0.0753527580357378,
        -0.10322626705778369,
        -0.12444717876010754,
        -0.08887973132309185
      ],
      [
        0.007817113830382753,
        0.06588067665945398,
        0.046409685949548904,
        -0.18635270946720442,
        0.10100289104821887,
        0.08185487950146954,
        -0.00437004983165319,
        -0.06301922301587456,
        -0.050313708031335676,
        -0.07646073185882506,
        -0.0693381319971231,
        0.043540149915033355,
        0.048736781802423475,
        -0.04602328442363774,
        0.027528140835806895,
        -0.14525963307619127
      ],
      [
        0.13361861000121708,
        0.12479499850594318,
        -0.025251733430296477,
        0.03634543378390732,
        -0.2409921965799875,
        -0.11563476602653329,
        -0.029377892015212983,
        -0.10721330214268593,
        0.07143964826306588,
        0.1997296530747994,
        -0.1176614719429302,
        -0.08374634040851928,
        0.023544836830993034,
        0.1611116148499621,
        -0.12223743125399032,
        0.0249036122306942
      ]
    ],
    "b1": [
      0.08431404589636972,
      0.15897839706548317,
      0.05595193292783259,
      0.15295526860553113,
      0.0538127946032545,
      0.038768822014497974,
      0.05680288368993626,
      0.10735227175443232,
      0.14003430480742954,
      0.009697360161253893,
      0.054382467128417336,
      0.18395555078967657,
      0.11039025078899954,
      0.16305003990248,
      0.041856122127343444,
      0.04432843970515101
    ],
    "Wf": [
      [
        0.29854738828609995,
        -0.2294856034155285,
        -0.20765382498727802,
        -0.012272020628018469,
        -0.02179844304860351
      ],
      [
        0.41648142264135496,
        0.2358708396272754,
        -0.39292466698671674,
        -0.07276781968854597,
        0.1808630065044645
      ],
      [
        0.10419839042853239,
        -0.20078479380019784,
        -0.04113099363092172,
        0.43872137628384666,
        0.043449812113793215
      ],
      [
        -0.03684060089782319,
        -0.5745238632717262,
        0.17044722394467948,
        -0.208804758603653,
        -0.009781779817482326
      ],
      [
        0.13606129530421335,
        0.34579690716366646,
        -0.20952168320701886,
        -0.2535518584708297,
        0.2425504787511082
      ],
      [
        0.08830978627858131,
        -0.08520939161460453,
        0.04454015463124613,
        -0.22329368777469488,
        0.060648232725942934
      ],
      [
        0.1017067437611032,
        0.24780746784399366,
        0.1534879772707103,
        -0.09351999889900096,
        -0.17411636280465434
      ],
      [
        0.11889535818282321,
        -0.2745341545379256,
        -0.4218598034698576,
        -0.004828226923093051,
        0.3368210462152759
      ],
      [
        -0.15134766014564238,
        -0.5121949397863789,
        -0.03750654199171873,
        -0.07739253842245317,
        0.024187270793453446
      ],
      [
        -0.23454695343705054,
        -0.12615822241016675,
        0.1544929034521569,
        -0.14595924979752495,
        0.0798931403670137
      ],
      [
        0.2898423901678489,
        0.07758469327918988,
        0.04212310859379048,
        0.029377392259864014,
        0.038783077465532945
      ],
      [
        -0.31608060890303064,
        0.09211679843370978,
        0.37248724048745663,
        0.5902091227268123,
        -0.0727089645499519
      ],
      [
        0.36299436650909894,
        -0.17347228246726817,
        0.1088625250738679,
        0.11018950894618697,
        -0.0765423572426747
      ],
      [
        -0.5341919698105013,
        0.5148881882872403,
        -0.012781887918899814,
        -0.21744250269443255,
        -0.05746159600148338
      ],
      [
        -0.4020829620811464,
        -0.1842976712135925,
        -0.005867418953444555,
        -0.298955653028215,
        -0.19061599677644045
      ],
      [
        -0.10903241248065604,
        -0.05109400656428603,
        -0.32512836537129464,
        0.02483687733076195,
        0.08690891065038779
      ]
    ],
    "bf": [
      0.04078198489260855,
      0.13556176323018068,
      0.07557811041428443,
      0.07815961012487069,
      -0.08336054550555666
    ],
    "Wd": [
      [
        -0.27748246079042516,
        -0.36695782391972914,
        -0.27225684970521963,
        -0.2797790344981697,
        0.3777407346699707,
        -0.008133747505702772,
        -0.09008766990017243,
        0.1080669555834548,
        -0.0859652164828351,
        0.17175226352037606,
        -0.1304854338274457,
        -0.4674320481218072,
        0.014971255930312314,
        0.13017442935815618,
        0.1547772136127657,
        0.06827897679151602,
        -0.25251021824469405,
        0.14888636116356693,
        0.19639061124225857,
        0.11530987829090947,
        -0.06928091229763038,
        -0.5360072002196387,
        0.08043695204833827,
        0.026990601276671116,
        -0.05810498389731393,
        -0.05753659779918798,
        -0.08188177390499145,
        0.019109965706525792,
        0.054887111124143746,
        -0.03241900641993921,
        -0.06519125176254224,
        0.027472498751867323,
        0.021774957331878175,
        -0.10678331635836798,
        -0.04712464754654554,
        0.06676541343732798,
        0.04518494764836884
      ],
      [
        -0.11888956868553716,
        -0.15342628722705348,
        -0.14878123499619522,
        -0.19717861899163724,
        -0.08365756436832837,
        -0.35331334155085126,
        -0.20820721016272886,
        -0.009727388636352476,
        -0.07039414955778162,
        0.3353040521002111,
        -0.009269251082492392,
        0.10410874542932717,
        0.22886513373947492,
        -0.015954489502340855,
        -0.4725882493056209,
        0.022500441200837072,
        0.3984857463216242,
        0.20871097904228797,
        -0.0028267151629644636,
        -0.22133575716434148,
        0.18139484193876393,
        0.12077705470986395,
        -0.07830283628231555,
        0.020137854747696207,
        -0.46161271121506914,
        0.4969056467249398,
        0.006686195818506203,
        0.020649157937979022,
        0.002926771112923111,
        -0.005580790668532795,
        -0.04332609222297774,
        0.0029132450320716384,
        0.020201565897165513,
        -0.37088261744330847,
        -0.015091051069631295,
        0.2519451989776681,
        0.014019974909128784
      ],
      [
        0.4077094197965377,
        0.3513995391701417,
        0.31533038895734583,
        0.21251788126821686,
        -0.10703461406231922,
        -0.055915400301419865,
        -0.0779460117819186,
        0.3099602263629662,
        0.34674932049458795,
        0.027984764884738608,
        -0.043586765861161225,
        0.015913851414553475,
        0.0797538526707613,
        -0.14439819889663405,
        0.09468453931303551,
        0.04251462065827491,
        0.14424724000754702,
        -0.07183052689579676,
        0.040655110541749355,
        -0.07788983279848069,
        0.05679174350488838,
        -0.2048735083844173,
        -0.1426813001707211,
        0.09020839825027191,
        0.022817327333912944,
        0.13821648363909012,
        0.04514465944641215,
        0.10793181122344386,
        0.04032086086640829,
        0.002341531915397717,
        -0.1227960638538092,
        0.03606095368479687,
        0.05968676226303571,
        -0.235055025898238,
        -0.0495324022866298,
        0.055953157059865914,
        0.14458052856212888
      ],
      [
        0.23594808902037756,
        0.20257994322066694,
        0.2112764806739781,
        0.21766343732701116,
        0.11209504192552149,
        -0.26852197988192444,
        -0.07330594956294302,
        -0.24597175465153034,
        0.10476936334511443,
        0.084211538825008,
        0.34688515336287923,
        -0.42549210292986195,
        -0.02883140679873621,
        0.07661824517005632,
        -0.025469092452391793,
        0.02762943923074533,
        0.05834290702029529,
        -0.0734428295200347,
        0.14205022716679688,
        0.008556944375288051,
        0.1180011237912763,
        -0.19436622157164307,
        0.30979517694004916,
        -0.01912251175021426,
        -0.05805919686810561,
        -0.16312934100796886,
        0.02719010351327641,
        -0.019926332440267806,
        -0.03972343651941448,
        -0.00048142774772851006,
        -0.030425555214026883,
        -0.03426960591902197,
        0.02290784801376562,
        -0.024892190808818253,
        0.0051995049087367375,
        0.17386963496657976,
        -0.0837822463421218
      ],
      [
        -0.16841035631693813,
        -0.017482575044390464,
        -0.2940175070948355,
        -0.3541075480107186,
        -0.22435941687607944,
        0.07251215709644757,
        -0.01319190489018971,
        -0.14980337950725073,
        0.18306327465867545,
        -0.17388544011207963,
        0.05087980537284716,
        0.07419353640867883,
        -0.06390892736159869,
        0.11028664331542105,
        -0.11114876643076634,
        -0.08882772023262266,
        -0.056632128382509236,
        0.22542574030683968,
        0.07698891296399143,
        0.007755230138890755,
        0.17840703553001197,
        -0.03664795933252681,
        0.06454768879165906,
        0.03362551243322837,
        0.18766596061703827,
        0.007957721299433052,
        0.294352284779105,
        0.09806185856452362,
        -0.08350585556325392,
        0.09281999386650301,
        -0.03134604236741955,
        -0.037347597413419614,
        0.06038566170483982,
        0.12966183284409752,
        0.04161043358126395,
        -0.08028387688820747,
        0.05795014176911583
      ]
    ],
    "bd": [
      0.060289786751860266,
      0.01277250186606532,
      0.044076665560394385,
      0.02678890377671362,
      0.02454949029569913,
      -0.07581902263608692,
      -0.046633399021577863,
      0.008299762576337697,
      0.01065873570722647,
      0.07762591253273217,
      0.01453881108342267,
      -0.07181674018142895,
      0.03803086468191785,
      -0.003210458352678276,
      -0.014633164331493765,
      0.028224113065219943,
      0.056838203407238407,
      -0.009317172977701654,
      0.004846406434863803,
      -0.02750881096479699,
      0.009289228261274523,
      -0.029999220948487056,
      0.001579676997176118,
      0.01422371177500424,
      -0.06367495211264107,
      0.041019609004808305,
      -0.022454516461871712,
      0.007174433474189476,
      0.008068131645860387,
      -0.015144215405044842,
      -0.03596389024398868,
      0.005093834203035666,
      0.011757595319098731,
      -0.08063296889153426,
      -0.016971634364823705,
      0.05482748632996525,
      0.002110655057722292
    ]
  },
  "meta": {
    "feature_names": [
      "irr_base",
      "irr_bear",
      "irr_bull",
      "irr_falsifier",
      "archetype_compounder",
      "archetype_croupier",
      "archetype_serial_acquirer",
      "archetype_platform",
      "archetype_holding_co",
      "archetype_optionality",
      "archetype_turnaround",
      "archetype_infrastructure",
      "archetype_unknown",
      "moat_widening",
      "moat_stable",
      "moat_eroding",
      "moat_unproven",
      "moat_n/a",
      "dhando_full",
      "dhando_partial",
      "dhando_none",
      "dhando_pending",
      "stance_core",
      "stance_accumulate",
      "stance_hold",
      "stance_watch",
      "stance_trim",
      "stance_exit",
      "bucket_pricing_power",
      "bucket_multi_sided",
      "bucket_other",
      "bucket_yield",
      "bucket_volume",
      "completeness",
      "falsifier_norm",
      "human_review_pending",
      "staleness_years"
    ],
    "mu": [
      10.424000000000001,
      10.424000000000001,
      10.424000000000001,
      8.876,
      0.24,
      0.16,
      0.04,
      0.12,
      0.04,
      0.2,
      0.04,
      0.04,
      0.12,
      0.04,
      0.48,
      0.0,
      0.36,
      0.12,
      0.04,
      0.84,
      0.08,
      0.04,
      0.08,
      0.0,
      0.4,
      0.52,
      0.0,
      0.0,
      0.0,
      0.0,
      0.0,
      0.0,
      0.0,
      0.79,
      0.0,
      0.96,
      1.0
    ],
    "sig": [
      6.449801617073368,
      6.449801617073368,
      6.449801617073368,
      6.009079465122585,
      0.42708413008125234,
      0.3666070555964671,
      0.19596017942265426,
      0.3249625361854384,
      0.1959601794226543,
      0.400001,
      0.19596017942265428,
      0.19596017942265423,
      0.32496253618543836,
      0.1959601794226543,
      0.499600839871872,
      1e-06,
      0.48000099999999996,
      0.3249625361854384,
      0.19596017942265434,
      0.366607055596467,
      0.27129419932501064,
      0.19596017942265423,
      0.27129419932501064,
      1e-06,
      0.4898989485566357,
      0.499600839871872,
      1e-06,
      1e-06,
      1e-06,
      1e-06,
      1e-06,
      1e-06,
      1e-06,
      0.12409773645990857,
      1e-06,
      0.19596017942265428,
      1e-06
    ],
    "factor_labels": [
      "factor_1",
      "factor_2",
      "factor_3",
      "factor_4",
      "factor_5"
    ],
    "final_loss": 0.3923852849499206,
    "epochs": 100
  }
}
