{
  "model": {
    "n_features": 37,
    "n_factors": 5,
    "W1": [
      [
        0.0182971389031292,
        -0.116212430739344,
        0.06797166439391407,
        0.10165781880688475,
        -0.21764559128940628,
        -0.11773923732835632,
        0.012883226196164476,
        -0.06849680565951492,
        -0.002067315805577526,
        -0.08871219560769084,
        0.07646498719184888,
        0.09033280852207953,
        0.015175248605464943,
        0.10923473527716751,
        0.05537364301742254,
        -0.09474176697112976
      ],
      [
        0.024700509335935948,
        -0.10810228019819433,
        0.08077157494399559,
        0.0026087560691380276,
        -0.0410283087785487,
        -0.05561424108251868,
        0.12235331974683897,
        -0.052325494632036916,
        -0.04321998227145938,
        -0.03862115789915579,
        0.04175610826090087,
        0.049098021415592524,
        0.04984544000894217,
        0.03959271488115249,
        0.22278746887926412,
        -0.04945402232126751
      ],
      [
        -0.06339884197946768,
        -0.09359129294008221,
        0.05452448707081791,
        0.12049857643985253,
        -0.03393681818951015,
        -0.07153693433837734,
        -0.08234893568968801,
        0.028186732357313407,
        0.07393821706519559,
        0.050907623980186674,
        -0.07802578102330342,
        0.03576974728585666,
        0.020240759763416157,
        0.01837947425326551,
        0.09576558658703693,
        0.013547034194662275
      ],
      [
        0.05475556661654205,
        -0.006402396721916769,
        0.021228378454878225,
        0.07033732375841864,
        -0.16490971002350838,
        -0.017667529595791678,
        -0.04643693963782048,
        -0.09917105628801863,
        -0.02930341387001471,
        0.14577125156104456,
        -0.09626787849481092,
        0.10630657673451774,
        -0.15952008735175865,
        -0.03753863484935326,
        0.02495777611273949,
        0.05033038592543613
      ],
      [
        0.08916488386879406,
        0.09545148234444062,
        -0.027754725075647885,
        -0.05411725370098506,
        0.06898923421231867,
        -0.02565436378027052,
        -0.12410522327482851,
        -0.10785722893069351,
        -0.08885170532836262,
        0.027083019802247865,
        0.021118489721969,
        0.062355242432501824,
        -0.03132806133985683,
        0.006029893165605666,
        0.05444003653367985,
        -0.02834003069001751
      ],
      [
        0.06180928029882338,
        -0.061435860977240554,
        -0.03228145045724945,
        -0.03729419914819492,
        -0.12137903010706175,
        0.04091118963048908,
        -0.04556533015803891,
        0.005410811963197647,
        0.0613676535905043,
        0.04858448540862472,
        0.055801271892320876,
        -0.011567306060433283,
        -0.04124743340076397,
        -0.012380194623807288,
        -0.17261005002531823,
        -0.1505350530992067
      ],
      [
        -0.13289655681884174,
        -0.1019737207499106,
        0.041820849124958925,
        -0.07910461062752878,
        -0.0385490859376159,
        0.1275281141882326,
        -0.03506363803703453,
        0.07938614505948098,
        -0.06897056739014502,
        -0.02209905413284423,
        -0.0955454168023735,
        -0.02672412076275332,
        0.08649714130728148,
        -0.17383533282523042,
        0.05765390283265048,
        0.022387087703411856
      ],
      [
        -0.060465947020623426,
        -0.14867445649098218,
        0.0061632019220252705,
        -0.039822508554650686,
        0.02843079393234141,
        0.01614208556769572,
        0.16964777263390776,
        -0.03518403793717818,
        -0.10562622676376192,
        0.026645063485098815,
        0.01970415522996473,
        0.1367240316969362,
        0.08517661443229488,
        0.022071230307387904,
        0.15357172168942726,
        -0.1231801644288557
      ],
      [
        -0.07197072691436872,
        -0.09490663213031489,
        -0.05030722721768457,
        -0.1349950302193811,
        0.06278226414776349,
        -0.0022771127868614484,
        -0.14651787038115774,
        -0.13103754459080202,
        0.018809080412721692,
        0.09440142042494702,
        0.19871246534875206,
        0.29186386500600847,
        0.04188282923027025,
        -0.0986697492795695,
        -0.21478724198273366,
        0.025384673704567647
      ],
      [
        -0.09091344870477185,
        -0.05110715896455489,
        -0.05910807691082496,
        -0.020476027095867978,
        0.10840845593900961,
        0.011773088579593036,
        -0.01886517020368351,
        -0.09840543478653822,
        -0.17260918667685934,
        -0.04499326298281672,
        -0.003158360418683337,
        0.18092357195136916,
        0.006661798215747846,
        0.10252283935690909,
        -0.045547759140568765,
        -0.11474188240166784
      ],
      [
        -0.09713827180663873,
        -0.07477164444333771,
        0.22298908784739965,
        -0.08432628395443292,
        0.08311608983995755,
        -0.09075602245942556,
        0.08790701758631198,
        0.06173076029069843,
        -0.017289516886472404,
        -0.017218605366344977,
        -0.06602198085425441,
        0.050625074466721875,
        -0.0450564621314074,
        -0.12366386688272038,
        -0.12937637134156468,
        0.04077524087601544
      ],
      [
        0.12638607281982497,
        0.00617142888618632,
        -0.031894377848092244,
        0.025422313215129156,
        0.15379927372799576,
        0.020952339634494287,
        -0.052790072899572424,
        0.10174369424101874,
        0.02227645822100298,
        0.17240014656002747,
        0.023729958391761122,
        -0.12576734459382088,
        -0.15230369347840195,
        0.1992851562542609,
        0.16840600790293409,
        -0.029020225360411926
      ],
      [
        -0.03831873211359878,
        0.14614442922422022,
        -0.1107045682043488,
        -0.08947270189558265,
        0.06433267946890445,
        -0.03946051228595896,
        -0.0005121866720071296,
        -0.016344289852451257,
        0.03375745487989336,
        0.1407481861313717,
        0.009058490690174555,
        0.0643938793276858,
        -0.20501721010310225,
        -0.0048718401930117955,
        -0.08432302702928712,
        -0.1218813060423628
      ],
      [
        -0.08844183227627661,
        -0.02323242015023041,
        0.09216785702939831,
        -0.13482688780595073,
        -0.01496407567334096,
        -0.049636546682096445,
        -0.02903508735474736,
        0.12418962784638989,
        0.06817121365830187,
        0.11529494956110141,
        -0.013113351949630116,
        -0.07189272940581895,
        -0.00291184109758333,
        0.015427474914264222,
        0.016074721935768355,
        -0.10982527975315261
      ],
      [
        0.03446482707897784,
        0.031476550787870955,
        0.25631341993619833,
        0.19802092397433124,
        -0.09667991801650692,
        -0.023849684920607628,
        -0.1376620295766615,
        -0.070729044742875,
        0.043364327478785124,
        0.11415168944782682,
        -0.08222567021573458,
        -0.06766246396520398,
        -0.20558247919615125,
        -0.03358841793155186,
        -0.10823795815244222,
        -0.0579738723306395
      ],
      [
        -0.08768607781675883,
        -0.0094262554252557,
        -0.17577283913566313,
        -0.14670452453909907,
        0.21292471120282982,
        -0.12874225812740311,
        -0.10967855784546397,
        0.18369135283213142,
        0.2905067169240407,
        -0.11715666288253418,
        -0.03682489567880306,
        0.03415555509405096,
        0.17286976444055924,
        -0.09868570784282375,
        -0.024527784594210976,
        0.0777337576061744
      ],
      [
        0.017708724515788168,
        -0.043776846360299375,
        -0.022634598297465627,
        -0.14351207991776604,
        -0.031189603266063293,
        -0.028090122627098583,
        0.014459815004965192,
        -0.06863851502279318,
        0.0333648160854751,
        0.10389181360000815,
        0.018765931946960395,
        0.045138113663647964,
        0.003573223821578103,
        0.010388199403219042,
        -0.07045412064951138,
        0.031937310031142155
      ],
      [
        -0.010862216198861501,
        0.20024766554046855,
        0.16182407411427477,
        0.033348942430635777,
        -0.05820957975959474,
        -0.11552204889583739,
        0.11706932687435798,
        0.036008192969462526,
        0.043870661460080645,
        -0.1717721078340464,
        0.0964897930708836,
        0.03855444968035832,
        -0.12127151668381758,
        -0.04333978492982044,
        0.031849217658902855,
        0.011537830452309909
      ],
      [
        -0.03575218558450583,
        -0.01671731045351579,
        -0.02023973458646025,
        0.0100027329384217,
        0.1474212359102257,
        -0.2571291487438527,
        -0.023122267381860365,
        0.014847185473196734,
        0.027788261553269328,
        -0.035706447441057665,
        -0.17621538955917368,
        0.025116652550250355,
        0.1771657496125597,
        -0.1544894309976093,
        0.06661222320736367,
        -0.05161447687696352
      ],
      [
        0.023967718172589653,
        -0.09461011259474691,
        -0.023541847818903245,
        0.13686499957778803,
        0.06506421328652832,
        0.17559478931518813,
        0.12405306777595008,
        0.06426776299880767,
        0.18831966964787505,
        0.04026178794931351,
        0.06836182025596259,
        -0.019976013017070204,
        0.0010120301033097736,
        -0.07938061008298963,
        0.11064222735525792,
        -0.09956359093955873
      ],
      [
        0.06799578327692815,
        -0.022356822100690107,
        0.11901498572339045,
        0.07112934454852975,
        0.1739738813779018,
        0.07072681245877137,
        -0.15750595781588078,
        -0.01176805693650263,
        -0.12047719676105702,
        -0.049141493373254526,
        0.16954868726907174,
        0.057855800568406675,
        -0.06588584892770369,
        -0.10306287261116755,
        0.0004151472006268932,
        -0.12173668028989358
      ],
      [
        -0.10504063792849325,
        0.021228245639443664,
        0.08722260593743385,
        0.05868853119044967,
        -0.2298617813934869,
        0.029973368252303064,
        -0.005742740036331304,
        0.01104753451047192,
        0.14043882034646948,
        -0.20483881698940296,
        -0.05965355383042594,
        0.05679216404058676,
        -0.15771755404272364,
        0.17117652016950133,
        0.03750461717373592,
        0.06626732736747223
      ],
      [
        -0.05709436615217946,
        0.08137636899662105,
        0.10684715559890384,
        0.023287802013716837,
        0.023440089269869596,
        0.02703432392817259,
        -0.08633452647393818,
        -0.014752868024035293,
        -0.01525225324523588,
        0.03833938643534951,
        0.09998242469102947,
        -0.10585360819784094,
        -0.012500903031957764,
        0.14814555476589733,
        -0.07435882288125642,
        -0.08222500172903204
      ],
      [
        0.01223504554372542,
        0.08218948105876962,
        -0.010183641346041829,
        0.1355696435799487,
        0.08494656772297574,
        0.1041271636120221,
        0.055974409201517396,
        0.20328567356456062,
        -0.03305847321890226,
        -0.1897634655711425,
        0.1594648123312875,
        -0.04529232469040712,
        0.011229930336973915,
        0.13123913120966965,
        -0.16180856801549529,
        -0.12655119394042985
      ],
      [
        -0.1613272586946638,
        -0.08990182639045707,
        0.041581192213204235,
        0.06178778021349847,
        0.03081129263276766,
        -0.14329956277798184,
        -0.22920457583997147,
        -0.006426459429695346,
        -0.023747061087956343,
        0.04992354760952494,
        0.05038181442067647,
        0.024621566501700023,
        0.07270141319377904,
        0.025661196608730674,
        0.0741715893511981,
        -0.07608051547536775
      ],
      [
        -0.01294478799755396,
        0.030392005506956553,
        0.08978513595122133,
        -0.04927073277599856,
        0.04955766865521056,
        -0.03450090901156894,
        -0.013684925888396158,
        0.10826549344724391,
        -0.21463602354909272,
        -0.13848694646004844,
        -0.12958850986120443,
        -0.24349160103712522,
        -0.06500752066366403,
        0.0722929215570913,
        -0.04711124152030597,
        0.02560281405108316
      ],
      [
        0.10892174967107926,
        0.13276861322676917,
        -0.0069137934726139555,
        0.13535858895693972,
        0.009212665843410921,
        -0.08373982238274622,
        -0.059440035219873524,
        -0.14805365125650163,
        -0.08881338537336525,
        -0.03580166880744292,
        0.08035850193786016,
        0.1720769831165984,
        -0.138218151537704,
        0.03928274682599189,
        -0.10405439391575344,
        0.0474697088463202
      ],
      [
        -0.01310866506877266,
        -0.18309058258475305,
        0.09282969915684844,
        -0.060500071280873105,
        -0.053390023837355464,
        -0.106975241128969,
        -0.06542832766875555,
        0.04278904406949172,
        -0.018924434093640554,
        0.032866200228248106,
        0.03619218539288437,
        0.1320661655528167,
        -0.03427861508643793,
        -0.1476857816845732,
        0.1067222416571983,
        -0.03314881720972547
      ],
      [
        0.1114592444577377,
        0.03833771131824704,
        -0.013113753020334493,
        0.03487758940462951,
        0.19510125601262995,
        0.20769805290537532,
        0.006938113513277871,
        0.01601905933170753,
        0.10762401574663856,
        -0.08456610327673472,
        0.03330703726182551,
        -0.0025862847953856405,
        0.03139082114575536,
        -0.08333688059494058,
        -0.1589567493308969,
        -0.2072983435991292
      ],
      [
        -0.11173841129896078,
        -0.0458675284939333,
        -0.029319158664876183,
        0.1937231162429517,
        0.11059933699072982,
        -0.09620911163416274,
        0.034770845245095695,
        -0.04070782363503251,
        -0.028436383804009514,
        0.018532564941538203,
        0.06191711169753933,
        -0.033925848388401535,
        0.10638515327343585,
        -0.11419382261424041,
        0.0006339062362268442,
        0.2597673726595832
      ],
      [
        0.02230797426252751,
        0.14332145066061727,
        0.009152017817320819,
        0.05807770953297967,
        -0.005678319439269153,
        -0.017040758116420442,
        -0.07794823967254197,
        0.04303013589575533,
        -0.0851537189185768,
        0.06655852363134292,
        0.10852870044459101,
        0.03665314072372299,
        -0.028624873355569187,
        0.04539655793086961,
        -0.03086730555464126,
        0.09355471254651493
      ],
      [
        -0.18314060842151236,
        -0.033560736811864625,
        -0.19908119951239978,
        -0.1495060830227205,
        0.13638622298139094,
        0.0895184981971686,
        -0.07194802332847904,
        -0.1502503456040897,
        -0.2964528837841651,
        -0.05434955079326346,
        0.24204150122474025,
        0.04348842714636474,
        -0.05595722860494895,
        0.04650802095003063,
        -0.1560958352994443,
        -0.029732336269763543
      ],
      [
        0.009947747301573849,
        -0.00861006518210485,
        0.07908061216900807,
        0.03446452262360524,
        0.0668326018107997,
        -0.06883722822307595,
        0.08978154084105482,
        0.16289369476239915,
        -0.09701495196514126,
        -0.08876956557145599,
        0.1335784336320233,
        -0.01913439866950603,
        0.1403821392066557,
        -0.04425357118921839,
        0.14550455762707112,
        0.013148581680545219
      ],
      [
        0.04773381517556252,
        0.16977355660925297,
        -0.032009288269474995,
        -0.08561398891562857,
        -0.04282970858142645,
        0.043431306628177194,
        -0.1542346318797636,
        0.06801832665907456,
        -0.03954702026651593,
        0.11237661820439457,
        -0.24620582497808768,
        -0.07469533963241683,
        -0.17244517978313437,
        -0.09129819979081148,
        0.03439562962532865,
        -0.0012963271862491705
      ],
      [
        -0.025337756894801496,
        -0.01591848713800608,
        0.020338824061994346,
        -0.10085360419431078,
        0.07068496408990509,
        0.0662665970385484,
        0.038503793765610105,
        0.05565334427512632,
        0.02964180008086595,
        0.20350733027310675,
        -0.00870941710525099,
        -0.030708321833457675,
        -0.0753527580357378,
        -0.10322626705778369,
        -0.12444717876010754,
        -0.08887973132309185
      ],
      [
        -0.006441442581805623,
        0.035678550839533876,
        0.007703748535795602,
        -0.08476249434478082,
        0.09075128693567329,
        0.07440457188081767,
        -0.01652758981130976,
        -0.043073762882963544,
        0.039292435162597075,
        0.003801336282576928,
        -0.12372259137973936,
        -0.012483508407133359,
        0.025761695304767494,
        -0.08877301991905169,
        0.02056695319334705,
        -0.1391403756646842
      ],
      [
        0.13361861000121708,
        0.12479499850594318,
        -0.025251733430296477,
        0.03634543378390732,
        -0.2409921965799875,
        -0.11563476602653329,
        -0.029377892015212983,
        -0.10721330214268593,
        0.07143964826306588,
        0.1997296530747994,
        -0.1176614719429302,
        -0.08374634040851928,
        0.023544836830993034,
        0.1611116148499621,
        -0.12223743125399032,
        0.0249036122306942
      ]
    ],
    "b1": [
      0.003069694573720051,
      0.011018047200055222,
      -0.002829678677687128,
      0.010717140753436988,
      0.003590140071643288,
      0.0022697315620753182,
      -0.002756959203853547,
      0.013737086174953209,
      0.008872770322220667,
      -0.007275074036672358,
      0.0026611946507444514,
      0.011260206211561553,
      -0.002164801019291849,
      0.005405025137755016,
      0.0077532326420635825,
      0.006792335142682811
    ],
    "Wf": [
      [
        0.19371693257895026,
        -0.15636913166824778,
        -0.13968401794876473,
        -0.04656842512790252,
        -0.04210829446106124
      ],
      [
        0.11560446036861576,
        0.040757960195833956,
        -0.20551429690574466,
        0.028670080651248785,
        -0.013551372388959777
      ],
      [
        0.12142458058515593,
        -0.06798991830797615,
        -0.0708132346370097,
        0.06934306961391708,
        0.06963952805337253
      ],
      [
        0.024431418620282926,
        -0.1911660698363779,
        0.08526173298673351,
        -0.10452808234735922,
        -0.009671444766891638
      ],
      [
        -0.10391994456866645,
        0.07792151804700025,
        -0.09454090528952012,
        -0.1621077491020041,
        0.1393960624159842
      ],
      [
        0.027001729656813453,
        -0.07222471517380068,
        0.11899367738873268,
        -0.06520654092156408,
        0.027002201163873526
      ],
      [
        0.01067905616770275,
        -0.05749561712209751,
        0.04881030009598708,
        -0.05496112551910337,
        -0.035409114252622546
      ],
      [
        0.1260554823867183,
        -0.1052626055430759,
        -0.2601541689928332,
        0.14850321249664866,
        0.2764693129008553
      ],
      [
        -0.07543445365922748,
        -0.1853963791659261,
        -0.017104742895428817,
        -0.033518225593635265,
        -0.018054486297072677
      ],
      [
        -0.1273023181211259,
        0.01963996283441409,
        0.03793917827264817,
        -0.1487706494278846,
        0.04482996899304779
      ],
      [
        0.18801793082460816,
        0.04100910602014152,
        0.037023155300631494,
        -0.023169911238620985,
        0.06333842630704943
      ],
      [
        -0.18700159293334795,
        0.04437186861849357,
        0.041741895697056344,
        0.19453379591252123,
        -0.04136774301139621
      ],
      [
        0.17136435105394068,
        -0.09953541710740428,
        0.0752326308366903,
        0.030291842455664433,
        -0.0887203155960899
      ],
      [
        -0.05199903205052685,
        0.18834005944388482,
        -0.012641987018114656,
        -0.17113740084741064,
        0.02399307520297955
      ],
      [
        -0.13318609531841227,
        -0.04306456040946077,
        0.004228725281116057,
        -0.1699250470200864,
        -0.17662714820223127
      ],
      [
        0.022590508604785692,
        -0.021493207380331118,
        -0.26223786661596027,
        0.07415732607142932,
        0.04800752700447647
      ]
    ],
    "bf": [
      -0.0032310435870004264,
      0.015275987907210803,
      0.014590462775909484,
      0.003917573218823304,
      -0.004851083556994616
    ],
    "Wd": [
      [
        -0.0900295557651392,
        -0.15114670701988958,
        0.06359769398462092,
        0.015036772819513936,
        0.2347317491779105,
        0.05030331594763447,
        0.029822239757880654,
        -0.021584868680238605,
        0.0777177455833495,
        0.06575704484488924,
        0.13119260421286127,
        -0.05249413911709445,
        -0.04269657270870055,
        -0.044936973294552526,
        0.07242893026345887,
        0.14960484816313316,
        -0.046664619226017744,
        -0.03520010541456631,
        0.03741970447338343,
        -0.026334692635834683,
        0.09585495559219279,
        -0.2312874120267428,
        -0.08332217381512104,
        -0.08128305158486918,
        -0.25078605028851303,
        -0.07475487962906517,
        -0.09183857508191658,
        -0.019610341465680643,
        0.11111352074173715,
        -0.02473192991944196,
        -0.10322409206118636,
        -0.005274313093825118,
        0.1043867196384858,
        -0.1051879716250047,
        -0.09095996001788656,
        0.05108994432550347,
        -0.021297200651429354
      ],
      [
        0.049048128671554114,
        -0.01629295055862797,
        0.05475225839183416,
        -0.12047358059817825,
        0.002434326818256856,
        -0.039587525615111585,
        -0.13339288513888342,
        -0.16077323039733493,
        0.058827933158970884,
        -0.007230091872193604,
        -0.10633627562131098,
        -0.0005405349964493387,
        0.11196612015083308,
        -0.2279532736455749,
        -0.17551277969315804,
        -0.09186086723677339,
        0.16504805494990457,
        0.0443990851753857,
        0.07874156542238354,
        -0.14444529390227923,
        -0.0821597197774532,
        0.05707144051950461,
        0.005341796590266918,
        0.044655635471228076,
        -0.03792429523721003,
        0.05039836344808659,
        0.0156116827829211,
        0.07729865597916707,
        0.08040072070590085,
        -0.16089198774132354,
        -0.223017807613427,
        0.09965630985138657,
        0.11790726211097312,
        -0.11649868874892882,
        -0.18478720098710816,
        0.01930688601634859,
        0.0928212710030382
      ],
      [
        0.2273384220293762,
        0.10281702932808574,
        0.014356825136377028,
        -0.041167410351917996,
        -0.010827714726735167,
        -0.010145494776542195,
        -0.08574076923466359,
        0.23616828282494282,
        0.19089005923929275,
        0.10209962596909648,
        -0.10129921346943636,
        0.03654682000966557,
        0.06203382738771933,
        0.031234348710447713,
        0.16526586689045505,
        0.061963337591301126,
        0.05987431554312546,
        0.041079655140117265,
        0.0340126379482947,
        -0.1411693104321479,
        -0.010674316042016123,
        -0.09198660837955554,
        -0.12555677963976186,
        0.17858849432610877,
        0.199255581881315,
        0.10028022197277996,
        0.026897948744127882,
        0.13352774717688043,
        0.0014310242175825916,
        0.02039431431283983,
        -0.10804842545686043,
        0.03901561802975033,
        0.0068761810881549585,
        -0.11851901720568221,
        -0.0053565128726686066,
        -0.016284504489116478,
        0.17759473840159737
      ],
      [
        0.10128716571207057,
        0.014851272919481306,
        0.03836429033375559,
        0.022896150083610185,
        -0.023042972667082492,
        -0.1081385727515199,
        -0.024801105477972506,
        -0.08951557782882545,
        -0.09258456645157659,
        0.07026269834084095,
        0.06262620441055791,
        -0.21437674613403682,
        -0.012841479244217344,
        0.10104644566761567,
        0.1016759469002226,
        0.10143106877890175,
        0.0046816403730344834,
        -0.06989671879897258,
        -0.10692165142700427,
        0.03763957716510444,
        0.05288228223476844,
        0.09730878045401753,
        0.10951244520304103,
        0.018158211060577998,
        -0.13639681539728155,
        -0.036489107525712834,
        0.021448754733235844,
        -0.020866773075550703,
        -0.05751784959454004,
        0.025507011836227885,
        -0.04856584752990958,
        -0.0626834336706397,
        0.0303814527810116,
        -0.03391790287377884,
        0.02484183157118596,
        0.03877417568605242,
        -0.11389381638965847
      ],
      [
        -0.0754461944227975,
        0.11439058452805666,
        -0.14499054387909452,
        -0.23546782253204834,
        -0.1902091131678385,
        0.010957003014316288,
        -0.010378892750656187,
        -0.03517292378955443,
        0.13013752380640467,
        -0.26436100127618856,
        0.04932537014603936,
        0.1753615197596563,
        -0.1114543707855143,
        -0.015608001944092589,
        -0.09390660628826088,
        -0.08874700745738118,
        -0.038906130155882956,
        0.1506070071890032,
        0.17455339706303563,
        -0.03467754777421805,
        0.19601176398225376,
        0.000519613484371084,
        0.17352531391125242,
        0.0006220442319089768,
        0.00023454065909964432,
        0.04664405460454836,
        0.3161574017243037,
        0.08555237976685612,
        -0.07052578410570583,
        0.09644087796581516,
        -0.03647902578124537,
        -0.04835848547903892,
        0.09004608028218943,
        0.001880169672340504,
        0.0278502299717446,
        -0.011575945784807353,
        0.034726197473938354
      ]
    ],
    "bd": [
      0.014379489788109228,
      0.002821943007822012,
      0.003407504946771768,
      -0.004152900780046231,
      -0.001974239435876255,
      -0.0067757088101264495,
      -0.009240804547817904,
      -0.0012439417938032121,
      0.0018446374455101263,
      0.007321424500379002,
      -0.0073378197566597156,
      -0.007260595509153732,
      0.007660321166605786,
      -0.002369633206523328,
      0.002925395862310902,
      0.0017553320811401177,
      0.009189912148733085,
      -0.0008929601231716515,
      -0.0025464370522269644,
      -0.008082532871423598,
      -0.005201166066552155,
      0.0065918268969416445,
      -0.0005018732027929194,
      0.00883507079875838,
      0.0030274310058166208,
      0.0049864277351543305,
      0.0001843197501418941,
      0.006065709996155584,
      9.586767326842626e-05,
      -0.005111315212099283,
      -0.012472017201965042,
      0.00320567898190259,
      0.0036273411392903224,
      -0.008487737790757522,
      -0.005336686888281645,
      0.0009083928683569874,
      0.004990900160501438
    ]
  },
  "meta": {
    "feature_names": [
      "irr_base",
      "irr_bear",
      "irr_bull",
      "irr_falsifier",
      "archetype_compounder",
      "archetype_croupier",
      "archetype_serial_acquirer",
      "archetype_platform",
      "archetype_holding_co",
      "archetype_optionality",
      "archetype_turnaround",
      "archetype_infrastructure",
      "archetype_unknown",
      "moat_widening",
      "moat_stable",
      "moat_eroding",
      "moat_unproven",
      "moat_n/a",
      "dhando_full",
      "dhando_partial",
      "dhando_none",
      "dhando_pending",
      "stance_core",
      "stance_accumulate",
      "stance_hold",
      "stance_watch",
      "stance_trim",
      "stance_exit",
      "bucket_pricing_power",
      "bucket_multi_sided",
      "bucket_other",
      "bucket_yield",
      "bucket_volume",
      "completeness",
      "falsifier_norm",
      "human_review_pending",
      "staleness_years"
    ],
    "mu": [
      10.424000000000001,
      10.424000000000001,
      10.424000000000001,
      8.876,
      0.28,
      0.2,
      0.04,
      0.12,
      0.04,
      0.2,
      0.04,
      0.08,
      0.0,
      0.04,
      0.56,
      0.0,
      0.24,
      0.12,
      0.04,
      0.8,
      0.12,
      0.04,
      0.0,
      0.04,
      0.16,
      0.8,
      0.0,
      0.0,
      0.0,
      0.0,
      0.0,
      0.0,
      0.0,
      0.79,
      0.0,
      0.96,
      1.0
    ],
    "sig": [
      6.449801617073368,
      6.449801617073368,
      6.449801617073368,
      6.009079465122585,
      0.44899988641287303,
      0.400001,
      0.19596017942265426,
      0.3249625361854384,
      0.1959601794226543,
      0.400001,
      0.19596017942265428,
      0.2712941993250107,
      1e-06,
      0.1959601794226543,
      0.49638794583963425,
      1e-06,
      0.42708413008125234,
      0.3249625361854384,
      0.19596017942265434,
      0.40000100000000005,
      0.3249625361854384,
      0.19596017942265423,
      1e-06,
      0.1959601794226543,
      0.3666070555964671,
      0.400001,
      1e-06,
      1e-06,
      1e-06,
      1e-06,
      1e-06,
      1e-06,
      1e-06,
      0.12409773645990857,
      1e-06,
      0.19596017942265428,
      1e-06
    ],
    "factor_labels": [
      "factor_1",
      "factor_2",
      "factor_3",
      "factor_4",
      "factor_5"
    ],
    "final_loss": 0.6628072969812363,
    "epochs": 20
  }
}
