{
  "model": {
    "n_features": 37,
    "n_factors": 5,
    "W1": [
      [
        0.014859982711374146,
        -0.12442122734450443,
        0.06697328549238933,
        0.1046284925048271,
        -0.22587305322267584,
        -0.12453197915943216,
        0.013554257582924275,
        -0.07244146069581783,
        -0.006785787583373528,
        -0.09207881428376925,
        0.07331816508439809,
        0.0975096070842403,
        0.019551468823722485,
        0.10541843853782093,
        0.055133264734950296,
        -0.09422675036340267
      ],
      [
        0.02126335314418089,
        -0.11631107680335477,
        0.07977319604247085,
        0.005579429767080413,
        -0.04925577071181825,
        -0.06240698291359451,
        0.12302435113359875,
        -0.056270149668339806,
        -0.04793845404925536,
        -0.04198777657523419,
        0.038609286153450106,
        0.056274819977753326,
        0.05422166022719971,
        0.035776418141805925,
        0.22254709059679184,
        -0.048939005713540415
      ],
      [
        -0.06683599817122272,
        -0.10180008954524265,
        0.05352610816929318,
        0.12346925013779488,
        -0.0421642801227797,
        -0.07832967616945317,
        -0.08167790430292823,
        0.02424207732101051,
        0.06921974528739958,
        0.04754100530410827,
        -0.08117260313075421,
        0.042946545848017464,
        0.0246169799816737,
        0.014563177513918934,
        0.09552520830456467,
        0.014062050802389372
      ],
      [
        0.0522796310431205,
        -0.013664909771565733,
        0.020840105780742035,
        0.07370084344955974,
        -0.17648511634285882,
        -0.026281150108930503,
        -0.04626704816308383,
        -0.10470498628579378,
        -0.03261989695561301,
        0.14271970959702834,
        -0.1012047439712091,
        0.11655824900049354,
        -0.15533857809397955,
        -0.04079418515755984,
        0.024657637020246287,
        0.05032472906084896
      ],
      [
        0.0944957774850149,
        0.10085344216061026,
        -0.030997303624423742,
        -0.05570223927386214,
        0.06477993811865944,
        -0.022697257221104807,
        -0.12355761308777252,
        -0.1094118722835192,
        -0.08485656002216953,
        0.021503054316907817,
        0.02249906985282473,
        0.059301032903890126,
        -0.029961399019613987,
        -0.0015131795103665588,
        0.05526419728158559,
        -0.030414715930091745
      ],
      [
        0.06301470564990412,
        -0.06449714481862628,
        -0.029256337529320768,
        -0.034806560897446596,
        -0.12266681284418986,
        0.04407386824500689,
        -0.04505582403264154,
        0.00580511564126576,
        0.07071098225030226,
        0.05214351211495861,
        0.050606973140242734,
        -0.013352634602941756,
        -0.04272360944408202,
        -0.015149548542529822,
        -0.17319336369035754,
        -0.15676554951526098
      ],
      [
        -0.13443800090803878,
        -0.10381137109983463,
        0.05605834963951244,
        -0.08616859176647958,
        -0.03907481967000137,
        0.12366896521651143,
        -0.034919452073436025,
        0.10455529593508163,
        -0.09485805639120883,
        -0.03310966297447652,
        -0.09589325540833073,
        -0.0375788821016117,
        0.09360742563850864,
        -0.17446060549088435,
        0.043959413983656485,
        0.053732085971953905
      ],
      [
        -0.06333713485587145,
        -0.1519988977928718,
        0.005228365662207691,
        -0.03360844358674746,
        0.02871009991424069,
        0.02318370841937466,
        0.1735873695365225,
        -0.04312051464120112,
        -0.10505664229229666,
        0.030647240485161212,
        0.01936490332551171,
        0.13824646453170536,
        0.08456119678144694,
        0.016560448515271668,
        0.15862080852833052,
        -0.1258748988726083
      ],
      [
        -0.07261251299606232,
        -0.09674428248023895,
        -0.05490538009947086,
        -0.13143142662890078,
        0.06225653041537807,
        -0.021497257977827353,
        -0.14637368441755927,
        -0.13353832855600145,
        0.01799158179075027,
        0.09679229437731834,
        0.19881232530356133,
        0.3062917863842013,
        0.04631301805576927,
        -0.10333903573029861,
        -0.21502537816939857,
        0.023545431021721283
      ],
      [
        -0.09345846646049069,
        -0.04896215071617662,
        -0.05863148322419882,
        -0.022833462360297724,
        0.10753297362292913,
        0.008927751714856614,
        -0.019898805845183436,
        -0.10040852632700767,
        -0.17121620131001675,
        -0.04353304269823422,
        -6.111840586583755e-05,
        0.1820971858167383,
        0.004408242060172134,
        0.10825016044135598,
        -0.04379504897382494,
        -0.11887965149958166
      ],
      [
        -0.09867971589583566,
        -0.07660929479326177,
        0.22535650302669713,
        -0.08547248056790387,
        0.08259035610757214,
        -0.08956770607665263,
        0.08578846834742161,
        0.06475238330094395,
        -0.017698541960460123,
        -0.021972317817844724,
        -0.06636981946021164,
        0.05552817000308599,
        -0.04565910690877282,
        -0.12428913954837426,
        -0.1322205293514483,
        0.04437406785690985
      ],
      [
        0.12566797412809239,
        0.006546186487298965,
        -0.039243703360517856,
        0.023766480583335078,
        0.16476001785451472,
        0.022967932992835262,
        -0.05632057266789206,
        0.09763890321971712,
        0.018737189930397004,
        0.1791006422219555,
        0.025373727730783686,
        -0.12775675677421175,
        -0.15622978460381134,
        0.21828481746697298,
        0.17138804548754827,
        -0.030983563281420348
      ],
      [
        -0.03831873211359878,
        0.14614442922422022,
        -0.1107045682043488,
        -0.08947270189558265,
        0.06433267946890445,
        -0.03946051228595896,
        -0.0005121866720071296,
        -0.016344289852451257,
        0.03375745487989336,
        0.1407481861313717,
        0.009058490690174555,
        0.0643938793276858,
        -0.20501721010310225,
        -0.0048718401930117955,
        -0.08432302702928712,
        -0.1218813060423628
      ],
      [
        -0.08998327636547354,
        -0.02207614615533208,
        0.09231054796970378,
        -0.13597308441942157,
        -0.02132592563660937,
        -0.047233297753610924,
        -0.028009932202668723,
        0.1288198369159529,
        0.07170527863059714,
        0.11038873665983466,
        -0.014744333608079264,
        -0.07326983567862576,
        0.0007681838227136022,
        0.005894124569488394,
        0.01583658574910347,
        -0.11166452243599895
      ],
      [
        0.039448878211046284,
        0.029600166744272707,
        0.25884246422434865,
        0.20263551997043047,
        -0.10185096889821142,
        -0.02482262368543959,
        -0.134823926132979,
        -0.06573819091913619,
        0.04269390083459135,
        0.11082819776418601,
        -0.08791861259330554,
        -0.06806893565070926,
        -0.20101975575691272,
        -0.0440836150965973,
        -0.11143339140009523,
        -0.0537013159391659
      ],
      [
        -0.08768607781675883,
        -0.0094262554252557,
        -0.17577283913566313,
        -0.14670452453909907,
        0.21292471120282982,
        -0.12874225812740311,
        -0.10967855784546397,
        0.18369135283213142,
        0.2905067169240407,
        -0.11715666288253418,
        -0.03682489567880306,
        0.03415555509405096,
        0.17286976444055924,
        -0.09868570784282375,
        -0.024527784594210976,
        0.0777337576061744
      ],
      [
        0.014930951072774382,
        -0.04658729070277587,
        -0.026077169658287932,
        -0.1466675550788778,
        -0.0310925429968235,
        -0.02996145949793514,
        0.011665720575535351,
        -0.07979728734036837,
        0.032266183430195584,
        0.10520238005646787,
        0.024341952252219416,
        0.04580029648377131,
        0.00209668655130191,
        0.017443409637454537,
        -0.06976238384968751,
        0.026884663469313067
      ],
      [
        -0.013650799127540941,
        0.2051042808520667,
        0.16231322899681716,
        0.03182950981866662,
        -0.05606947304318247,
        -0.11399179197960951,
        0.11623805504966896,
        0.03672476071797837,
        0.04520558394643378,
        -0.17069366430469135,
        0.09725904496748494,
        0.039965922711414505,
        -0.12560550013427527,
        -0.03799617197111205,
        0.03611868867028062,
        0.011859763572188693
      ],
      [
        -0.03925923794544139,
        -0.01886614717099055,
        -0.01976760647630584,
        0.007813999650968687,
        0.14970259146380194,
        -0.25594083236107973,
        -0.02297808141826185,
        0.012208648666299542,
        0.028103110578488844,
        -0.0351103165579628,
        -0.1765632281651309,
        0.02041184474407272,
        0.17963035633938937,
        -0.15511470366326321,
        0.06146411108854203,
        -0.06059109704060791
      ],
      [
        0.027141365847940115,
        -0.09150237317674752,
        -0.019055463167753285,
        0.1401833416415209,
        0.06365558355234333,
        0.17332115133267312,
        0.12650261498356996,
        0.0750925839253161,
        0.18929230707871128,
        0.03880156766473101,
        0.06061547289428687,
        -0.01567263434079838,
        -0.0002559427664837492,
        -0.08871341749638294,
        0.11136673285280765,
        -0.09099248830351632
      ],
      [
        0.06655919634742243,
        -0.024193258715361144,
        0.11942953956180205,
        0.06905579265544731,
        0.17464910178269236,
        0.07209229935056692,
        -0.15811069296841426,
        -0.016541359288480224,
        -0.11990761228959176,
        -0.048063049843899544,
        0.17950328622148365,
        0.05622625026407785,
        -0.06544789069453089,
        -0.09989522430633692,
        -1.5658243105070706e-05,
        -0.1243335505458641
      ],
      [
        -0.10562944480839709,
        0.02007883177868305,
        0.07690524896882264,
        0.057542334576978764,
        -0.23038751512587238,
        0.03116168463507597,
        -0.009884192516092483,
        -0.0004943339329870652,
        0.13719404157183518,
        -0.2042426861063081,
        -0.06000139243638313,
        0.05541505776778002,
        -0.15832019882008908,
        0.1855993167976736,
        0.04188825104820636,
        0.062054716491373556
      ],
      [
        -0.05709436615217946,
        0.08137636899662105,
        0.10684715559890384,
        0.023287802013716837,
        0.023440089269869596,
        0.02703432392817259,
        -0.08633452647393818,
        -0.014752868024035293,
        -0.01525225324523588,
        0.03833938643534951,
        0.09998242469102947,
        -0.10585360819784094,
        -0.012500903031957764,
        0.14814555476589733,
        -0.07435882288125642,
        -0.08222500172903204
      ],
      [
        0.011593259462031779,
        0.08035183070884556,
        -0.014781794227828136,
        0.13913324717042902,
        0.08442083399059032,
        0.0849070184210562,
        0.0561185951651159,
        0.20078488959936122,
        -0.03387597184087367,
        -0.18737259161877118,
        0.15956467228609678,
        -0.030864403312214156,
        0.01566011916247293,
        0.12656984475894062,
        -0.1620467042021602,
        -0.1283904366232762
      ],
      [
        -0.16404993299807738,
        -0.08790730903459722,
        0.03975143796322923,
        0.06234516282704586,
        0.025350584895845314,
        -0.1399649901592028,
        -0.22846478651326876,
        -0.015415408621157362,
        -0.024534683088168942,
        0.056966347222491366,
        0.03658186870180414,
        0.029962916420672035,
        0.06658319249916178,
        0.02842356747334083,
        0.07754432585800616,
        -0.0814147713111547
      ],
      [
        -0.009867661333864396,
        0.029390886949080063,
        0.09429855509671724,
        -0.05150683966703716,
        0.054807655555355404,
        -0.028134023160970155,
        -0.014388491682452095,
        0.11852843472790948,
        -0.21223571574387673,
        -0.14636023421106578,
        -0.11796325276432315,
        -0.2556344755331854,
        -0.0620717763017609,
        0.07241001156249735,
        -0.04926566408138647,
        0.031207105847207702
      ],
      [
        0.10892174967107926,
        0.13276861322676917,
        -0.0069137934726139555,
        0.13535858895693972,
        0.009212665843410921,
        -0.08373982238274622,
        -0.059440035219873524,
        -0.14805365125650163,
        -0.08881338537336525,
        -0.03580166880744292,
        0.08035850193786016,
        0.1720769831165984,
        -0.138218151537704,
        0.03928274682599189,
        -0.10405439391575344,
        0.0474697088463202
      ],
      [
        -0.01310866506877266,
        -0.18309058258475305,
        0.09282969915684844,
        -0.060500071280873105,
        -0.053390023837355464,
        -0.106975241128969,
        -0.06542832766875555,
        0.04278904406949172,
        -0.018924434093640554,
        0.032866200228248106,
        0.03619218539288437,
        0.1320661655528167,
        -0.03427861508643793,
        -0.1476857816845732,
        0.1067222416571983,
        -0.03314881720972547
      ],
      [
        0.1114592444577377,
        0.03833771131824704,
        -0.013113753020334493,
        0.03487758940462951,
        0.19510125601262995,
        0.20769805290537532,
        0.006938113513277871,
        0.01601905933170753,
        0.10762401574663856,
        -0.08456610327673472,
        0.03330703726182551,
        -0.0025862847953856405,
        0.03139082114575536,
        -0.08333688059494058,
        -0.1589567493308969,
        -0.2072983435991292
      ],
      [
        -0.11173841129896078,
        -0.0458675284939333,
        -0.029319158664876183,
        0.1937231162429517,
        0.11059933699072982,
        -0.09620911163416274,
        0.034770845245095695,
        -0.04070782363503251,
        -0.028436383804009514,
        0.018532564941538203,
        0.06191711169753933,
        -0.033925848388401535,
        0.10638515327343585,
        -0.11419382261424041,
        0.0006339062362268442,
        0.2597673726595832
      ],
      [
        0.02230797426252751,
        0.14332145066061727,
        0.009152017817320819,
        0.05807770953297967,
        -0.005678319439269153,
        -0.017040758116420442,
        -0.07794823967254197,
        0.04303013589575533,
        -0.0851537189185768,
        0.06655852363134292,
        0.10852870044459101,
        0.03665314072372299,
        -0.028624873355569187,
        0.04539655793086961,
        -0.03086730555464126,
        0.09355471254651493
      ],
      [
        -0.18314060842151236,
        -0.033560736811864625,
        -0.19908119951239978,
        -0.1495060830227205,
        0.13638622298139094,
        0.0895184981971686,
        -0.07194802332847904,
        -0.1502503456040897,
        -0.2964528837841651,
        -0.05434955079326346,
        0.24204150122474025,
        0.04348842714636474,
        -0.05595722860494895,
        0.04650802095003063,
        -0.1560958352994443,
        -0.029732336269763543
      ],
      [
        0.009947747301573849,
        -0.00861006518210485,
        0.07908061216900807,
        0.03446452262360524,
        0.0668326018107997,
        -0.06883722822307595,
        0.08978154084105482,
        0.16289369476239915,
        -0.09701495196514126,
        -0.08876956557145599,
        0.1335784336320233,
        -0.01913439866950603,
        0.1403821392066557,
        -0.04425357118921839,
        0.14550455762707112,
        0.013148581680545219
      ],
      [
        0.05157780238930621,
        0.17051241777143686,
        -0.029501665437733884,
        -0.08311806870321292,
        -0.039905533812298374,
        0.04027693832738687,
        -0.15347808371890925,
        0.07676678308968457,
        -0.03985374323761477,
        0.11035613418283029,
        -0.24814486882679812,
        -0.07135281885388758,
        -0.1721676949359458,
        -0.09745034521626797,
        0.033517904660885195,
        0.010892787180848868
      ],
      [
        -0.025337756894801496,
        -0.01591848713800608,
        0.020338824061994346,
        -0.10085360419431078,
        0.07068496408990509,
        0.0662665970385484,
        0.038503793765610105,
        0.05565334427512632,
        0.02964180008086595,
        0.20350733027310675,
        -0.00870941710525099,
        -0.030708321833457675,
        -0.0753527580357378,
        -0.10322626705778369,
        -0.12444717876010754,
        -0.08887973132309185
      ],
      [
        -0.004899998492608645,
        0.037516201189457886,
        0.004393912121113718,
        -0.09198211633717986,
        0.0912770206680587,
        0.07321625549804474,
        -0.01667177577490828,
        -0.041599785824113215,
        0.02864262134272779,
        -0.004447593385577543,
        -0.11506382399940114,
        -0.0143476563577907,
        0.02636434008213292,
        -0.08835026570609994,
        0.020805089380011934,
        -0.13377943194905925
      ],
      [
        0.13361861000121708,
        0.12479499850594318,
        -0.025251733430296477,
        0.03634543378390732,
        -0.2409921965799875,
        -0.11563476602653329,
        -0.029377892015212983,
        -0.10721330214268593,
        0.07143964826306588,
        0.1997296530747994,
        -0.1176614719429302,
        -0.08374634040851928,
        0.023544836830993034,
        0.1611116148499621,
        -0.12223743125399032,
        0.0249036122306942
      ]
    ],
    "b1": [
      0.010621236080945796,
      0.02002070450723558,
      -0.0035287222342932933,
      0.016332363104171976,
      0.00616571198481321,
      -0.0035518357274011317,
      -0.0034633268862783975,
      0.026663289827274516,
      0.00733032353539405,
      -0.010195521906938758,
      0.004365257541581923,
      0.01800665601914355,
      0.0007875584482244836,
      0.008468238731495435,
      0.008919862888710517,
      0.015802793295992275
    ],
    "Wf": [
      [
        0.19923463825744475,
        -0.15687359895175748,
        -0.14674737145155467,
        -0.050283585342204055,
        -0.040349597312372094
      ],
      [
        0.1299647840710938,
        0.048685469431147536,
        -0.2219227519729677,
        0.015478880621963526,
        -0.0020598373413251957
      ],
      [
        0.12408843724060278,
        -0.0730925868626038,
        -0.07390305248568145,
        0.08219358677692848,
        0.06675377436428942
      ],
      [
        0.009231251908714124,
        -0.1957188580642273,
        0.1180322039039884,
        -0.10190034213561285,
        -0.02150539142828624
      ],
      [
        -0.0888697516713708,
        0.0993329965281789,
        -0.10640123165470206,
        -0.1791556225238131,
        0.15661857271069693
      ],
      [
        0.033556538816825854,
        -0.07942651352156327,
        0.0917276100752587,
        -0.07139332112012903,
        0.030418815056534893
      ],
      [
        0.008006406653917674,
        -0.06070659433759338,
        0.04733535372039796,
        -0.05770899211652843,
        -0.0347182082943555
      ],
      [
        0.12932213984203877,
        -0.11370673485436562,
        -0.27792117824237306,
        0.1461962969682753,
        0.28193210832079457
      ],
      [
        -0.09206743120557613,
        -0.1842550726227826,
        -0.006122970318900312,
        -0.03505568845890087,
        -0.01906979170369559
      ],
      [
        -0.13309492581650037,
        0.01623073683417327,
        0.04531580793413156,
        -0.1523968649238561,
        0.03924653597463571
      ],
      [
        0.17502295173811294,
        0.04845832916640467,
        0.06985149494345679,
        -0.02121649390009536,
        0.06469473039621566
      ],
      [
        -0.20580313516790474,
        0.052242620432335435,
        0.09294793440104802,
        0.20696177607031463,
        -0.05238573388239038
      ],
      [
        0.1792969500827057,
        -0.08767725729639166,
        0.08423159138497774,
        0.026583435420230388,
        -0.08619190345397908
      ],
      [
        -0.07760727875037836,
        0.21017361439122012,
        -0.014138170300000282,
        -0.1805850406294327,
        0.0372861975144163
      ],
      [
        -0.14511144308904872,
        -0.037914033478200805,
        0.01540509334466508,
        -0.17141956126974683,
        -0.17635979332722784
      ],
      [
        0.014516802830386229,
        -0.02244448375878773,
        -0.27280171260859276,
        0.07658762792120473,
        0.04737318441481969
      ]
    ],
    "bf": [
      -0.002250155271228509,
      0.016217395590384414,
      0.016683505731944166,
      0.005657374934499725,
      -0.009551555566795097
    ],
    "Wd": [
      [
        -0.10420011655934437,
        -0.16590899329144607,
        0.04823817142172772,
        -0.00015476565079431933,
        0.23689723558588954,
        0.04947912786304398,
        0.05009372892976284,
        -0.024068643693542693,
        0.06652150839557655,
        0.06629766204920624,
        0.1315186723452461,
        -0.05923117712761322,
        -0.042028178601371036,
        -0.039887536922428614,
        0.07314576438154005,
        0.14936055972350026,
        -0.051012536121876804,
        -0.03294110667373713,
        0.04100107433009051,
        -0.02515327449054055,
        0.09717342901330743,
        -0.24155741076724702,
        -0.08391044835522339,
        -0.09169516221949595,
        -0.265969937583023,
        -0.05345360750004213,
        -0.09208557274518425,
        -0.01920191815182915,
        0.11089224815554474,
        -0.024818075407396955,
        -0.10314837153762427,
        -0.004944718793110697,
        0.10380906304492267,
        -0.1042638492501251,
        -0.09073603677400635,
        0.05820576646662887,
        -0.020544801878525087
      ],
      [
        0.04042806112591889,
        -0.024996039624513536,
        0.04581672098557419,
        -0.12618943454410203,
        0.002557631653825091,
        -0.050987266709353316,
        -0.1339521145511189,
        -0.16427359509144582,
        0.05746004192230636,
        0.003378881575556193,
        -0.10872075445922359,
        0.009020035103952129,
        0.11172268396433223,
        -0.22970233401390414,
        -0.18724295442420025,
        -0.09140027593663998,
        0.17519083340282307,
        0.04981363437938286,
        0.07923101505844428,
        -0.16028325694460946,
        -0.06942077694328469,
        0.06826353132478724,
        0.005255600040319734,
        0.04341275294090432,
        -0.04048570419517417,
        0.053331142114184334,
        0.015583753848904609,
        0.07721797097221093,
        0.08014232058201498,
        -0.16040581996568895,
        -0.22259073815090763,
        0.09936834503893333,
        0.11762467790119396,
        -0.12314374432291535,
        -0.18427000141299388,
        0.023773494522098933,
        0.09266293485163248
      ],
      [
        0.2457311368839596,
        0.12298671792833138,
        0.034938393590672,
        -0.017495791207730826,
        -0.015759199925262493,
        -0.0010642962467279605,
        -0.11162581316197515,
        0.2463456525753513,
        0.20689588201471687,
        0.10381474303485692,
        -0.10367824367022793,
        0.022810541082535114,
        0.061044787356655694,
        0.026718314832207407,
        0.17104446695673747,
        0.06123656591496653,
        0.059131430997245805,
        0.0398442514693286,
        0.03777031953377663,
        -0.1374217367502689,
        -0.010962582880669447,
        -0.0990494279809307,
        -0.12429739634643815,
        0.19327514107305308,
        0.2160151224340196,
        0.07411957074036479,
        0.027697685624396177,
        0.13286231350651442,
        0.0017492391859482744,
        0.02029165000461657,
        -0.10784511752912879,
        0.03873358872467903,
        0.007668334651465961,
        -0.12470611689442375,
        -0.005812110564428206,
        -0.028063912911190415,
        0.1765717049309142
      ],
      [
        0.12010521833618254,
        0.034522200837162315,
        0.0577568045568711,
        0.038265359580320235,
        -0.027154305349225635,
        -0.11103805513134954,
        0.0006901011938655131,
        -0.09635209013386853,
        -0.07857181893113367,
        0.07135777289692571,
        0.07404134277642617,
        -0.2338327640236007,
        -0.012873807343740598,
        0.10097980936392308,
        0.10753922263513352,
        0.10050008104461623,
        0.0012172100363444685,
        -0.06817895889843097,
        -0.10802933919873638,
        0.044204501693434796,
        0.05495245000596043,
        0.08186019389772878,
        0.10954742956847109,
        0.03165274656557277,
        -0.1375732629035675,
        -0.044247677581855216,
        0.021726542260021336,
        -0.020865262216779073,
        -0.0573228662690111,
        0.025275119258434214,
        -0.0483288611208307,
        -0.0624095422607458,
        0.030384529025183973,
        -0.024182605396804096,
        0.02461833959658092,
        0.04496724389647224,
        -0.11359630515195199
      ],
      [
        -0.08230268665987323,
        0.10640048290491207,
        -0.152901593750502,
        -0.24774883095751007,
        -0.193937173116436,
        0.008472058523619933,
        0.011729173645500744,
        -0.0471798911213933,
        0.1269452278444493,
        -0.2606227563328989,
        0.04987439898344921,
        0.18162755346367754,
        -0.11075404035884065,
        -0.00914533583803178,
        -0.0988590647348018,
        -0.08836328570715186,
        -0.0407815254944206,
        0.15092833898826796,
        0.16963260188934337,
        -0.03273900031393084,
        0.19708226674707138,
        -0.0029122320218778353,
        0.17267637716088288,
        -0.001721371747879591,
        -0.006046842052125707,
        0.05462412182526099,
        0.31538703450533556,
        0.08582521565198971,
        -0.07058728422275153,
        0.09630985585013423,
        -0.03659257382507964,
        -0.04810218929691869,
        0.08954706113094768,
        0.0038491583044775648,
        0.027991675116371875,
        -0.010715248424968196,
        0.03526646526240942
      ]
    ],
    "bd": [
      0.017077740118296346,
      0.0027177264373663434,
      0.005338463534097442,
      -0.0023979711062000826,
      -0.0007214362145192751,
      -0.0078015225967377495,
      -0.010298339215478033,
      -0.0010102353209131632,
      0.0016914976253511725,
      0.010468074140642682,
      -0.007949239717996756,
      -0.010303930783215984,
      0.009063175158232484,
      -0.0022660845536063424,
      0.004496287100294493,
      0.003106222249372706,
      0.010378849015067906,
      -0.002036429713249179,
      -0.0041311422000810975,
      -0.008758459046348305,
      -0.006424827738881728,
      0.006708127851086922,
      -0.0016620220981103458,
      0.010247686400554252,
      0.002986709817026981,
      0.00459871261204697,
      -0.0019315704072178387,
      0.006125362284677859,
      0.0005623635521200867,
      -0.006135401038708523,
      -0.013775807675281181,
      0.003667805781275435,
      0.0036013445276284195,
      -0.009669591248062378,
      -0.0060577588510007125,
      0.0012664572603121366,
      0.005071244573145704
    ]
  },
  "meta": {
    "feature_names": [
      "irr_base",
      "irr_bear",
      "irr_bull",
      "irr_falsifier",
      "archetype_compounder",
      "archetype_croupier",
      "archetype_serial_acquirer",
      "archetype_platform",
      "archetype_holding_co",
      "archetype_optionality",
      "archetype_turnaround",
      "archetype_infrastructure",
      "archetype_unknown",
      "moat_widening",
      "moat_stable",
      "moat_eroding",
      "moat_unproven",
      "moat_n/a",
      "dhando_full",
      "dhando_partial",
      "dhando_none",
      "dhando_pending",
      "stance_core",
      "stance_accumulate",
      "stance_hold",
      "stance_watch",
      "stance_trim",
      "stance_exit",
      "bucket_pricing_power",
      "bucket_multi_sided",
      "bucket_other",
      "bucket_yield",
      "bucket_volume",
      "completeness",
      "falsifier_norm",
      "human_review_pending",
      "staleness_years"
    ],
    "mu": [
      8.876,
      8.876,
      8.876,
      8.876,
      0.28,
      0.2,
      0.04,
      0.12,
      0.04,
      0.2,
      0.04,
      0.08,
      0.0,
      0.04,
      0.56,
      0.0,
      0.24,
      0.12,
      0.04,
      0.8,
      0.12,
      0.04,
      0.0,
      0.04,
      0.12,
      0.84,
      0.0,
      0.0,
      0.0,
      0.0,
      0.0,
      0.0,
      0.0,
      0.79,
      0.0,
      0.96,
      1.0
    ],
    "sig": [
      6.009079465122585,
      6.009079465122585,
      6.009079465122585,
      6.009079465122585,
      0.44899988641287303,
      0.400001,
      0.19596017942265426,
      0.3249625361854384,
      0.1959601794226543,
      0.400001,
      0.19596017942265428,
      0.2712941993250107,
      1e-06,
      0.1959601794226543,
      0.49638794583963425,
      1e-06,
      0.42708413008125234,
      0.3249625361854384,
      0.19596017942265434,
      0.40000100000000005,
      0.3249625361854384,
      0.19596017942265423,
      1e-06,
      0.1959601794226543,
      0.32496253618543847,
      0.3666070555964671,
      1e-06,
      1e-06,
      1e-06,
      1e-06,
      1e-06,
      1e-06,
      1e-06,
      0.12409773645990857,
      1e-06,
      0.19596017942265428,
      1e-06
    ],
    "factor_labels": [
      "factor_1",
      "factor_2",
      "factor_3",
      "factor_4",
      "factor_5"
    ],
    "final_loss": 0.6559912214227415,
    "epochs": 20
  }
}
